digraph Tree {
node [shape=box] ;
0 [label="X[3] <= 0.012\ngini = 0.5\nsamples = 161\nvalue = [79, 82]"] ;
1 [label="X[4] <= -0.013\ngini = 0.194\nsamples = 55\nvalue = [6, 49]"] ;
0 -> 1 [labeldistance=2.5, labelangle=45, headlabel="True"] ;
2 [label="X[3] <= -0.001\ngini = 0.49\nsamples = 14\nvalue = [6, 8]"] ;
1 -> 2 ;
3 [label="gini = 0.0\nsamples = 8\nvalue = [0, 8]"] ;
2 -> 3 ;
4 [label="gini = 0.0\nsamples = 6\nvalue = [6, 0]"] ;
2 -> 4 ;
5 [label="gini = 0.0\nsamples = 41\nvalue = [0, 41]"] ;
1 -> 5 ;
6 [label="X[0] <= 0.017\ngini = 0.429\nsamples = 106\nvalue = [73, 33]"] ;
0 -> 6 [labeldistance=2.5, labelangle=-45, headlabel="False"] ;
7 [label="X[5] <= 0.004\ngini = 0.126\nsamples = 59\nvalue = [55, 4]"] ;
6 -> 7 ;
8 [label="X[0] <= -0.058\ngini = 0.48\nsamples = 5\nvalue = [2, 3]"] ;
7 -> 8 ;
9 [label="gini = 0.0\nsamples = 2\nvalue = [2, 0]"] ;
8 -> 9 ;
10 [label="gini = 0.0\nsamples = 3\nvalue = [0, 3]"] ;
8 -> 10 ;
11 [label="X[4] <= 0.05\ngini = 0.036\nsamples = 54\nvalue = [53, 1]"] ;
7 -> 11 ;
12 [label="gini = 0.0\nsamples = 51\nvalue = [51, 0]"] ;
11 -> 12 ;
13 [label="X[5] <= 0.052\ngini = 0.444\nsamples = 3\nvalue = [2, 1]"] ;
11 -> 13 ;
14 [label="gini = 0.0\nsamples = 1\nvalue = [0, 1]"] ;
13 -> 14 ;
15 [label="gini = 0.0\nsamples = 2\nvalue = [2, 0]"] ;
13 -> 15 ;
16 [label="X[6] <= 0.053\ngini = 0.473\nsamples = 47\nvalue = [18, 29]"] ;
6 -> 16 ;
17 [label="X[1] <= 0.101\ngini = 0.414\nsamples = 41\nvalue = [12, 29]"] ;
16 -> 17 ;
18 [label="X[5] <= 0.052\ngini = 0.346\nsamples = 36\nvalue = [8, 28]"] ;
17 -> 18 ;
19 [label="X[3] <= 0.046\ngini = 0.48\nsamples = 20\nvalue = [8, 12]"] ;
18 -> 19 ;
20 [label="X[4] <= 0.035\ngini = 0.415\nsamples = 17\nvalue = [5, 12]"] ;
19 -> 20 ;
21 [label="X[4] <= 0.032\ngini = 0.444\nsamples = 6\nvalue = [4, 2]"] ;
20 -> 21 ;
22 [label="X[4] <= 0.025\ngini = 0.444\nsamples = 3\nvalue = [1, 2]"] ;
21 -> 22 ;
23 [label="gini = 0.0\nsamples = 1\nvalue = [1, 0]"] ;
22 -> 23 ;
24 [label="gini = 0.0\nsamples = 2\nvalue = [0, 2]"] ;
22 -> 24 ;
25 [label="gini = 0.0\nsamples = 3\nvalue = [3, 0]"] ;
21 -> 25 ;
26 [label="X[1] <= 0.023\ngini = 0.165\nsamples = 11\nvalue = [1, 10]"] ;
20 -> 26 ;
27 [label="gini = 0.0\nsamples = 1\nvalue = [1, 0]"] ;
26 -> 27 ;
28 [label="gini = 0.0\nsamples = 10\nvalue = [0, 10]"] ;
26 -> 28 ;
29 [label="gini = 0.0\nsamples = 3\nvalue = [3, 0]"] ;
19 -> 29 ;
30 [label="gini = 0.0\nsamples = 16\nvalue = [0, 16]"] ;
18 -> 30 ;
31 [label="X[2] <= 0.25\ngini = 0.32\nsamples = 5\nvalue = [4, 1]"] ;
17 -> 31 ;
32 [label="gini = 0.0\nsamples = 1\nvalue = [0, 1]"] ;
31 -> 32 ;
33 [label="gini = 0.0\nsamples = 4\nvalue = [4, 0]"] ;
31 -> 33 ;
34 [label="gini = 0.0\nsamples = 6\nvalue = [6, 0]"] ;
16 -> 34 ;
}