digraph Tree {
node [shape=box] ;
0 [label="X[2] <= -0.285\ngini = 0.499\nsamples = 140\nvalue = [73, 67]"] ;
1 [label="gini = 0.0\nsamples = 7\nvalue = [0, 7]"] ;
0 -> 1 [labeldistance=2.5, labelangle=45, headlabel="True"] ;
2 [label="X[1] <= -0.023\ngini = 0.495\nsamples = 133\nvalue = [73, 60]"] ;
0 -> 2 [labeldistance=2.5, labelangle=-45, headlabel="False"] ;
3 [label="X[1] <= -0.038\ngini = 0.399\nsamples = 40\nvalue = [29, 11]"] ;
2 -> 3 ;
4 [label="X[2] <= 0.042\ngini = 0.466\nsamples = 27\nvalue = [17, 10]"] ;
3 -> 4 ;
5 [label="X[1] <= -0.043\ngini = 0.496\nsamples = 22\nvalue = [12, 10]"] ;
4 -> 5 ;
6 [label="X[2] <= -0.154\ngini = 0.457\nsamples = 17\nvalue = [11, 6]"] ;
5 -> 6 ;
7 [label="X[2] <= -0.263\ngini = 0.245\nsamples = 7\nvalue = [6, 1]"] ;
6 -> 7 ;
8 [label="X[2] <= -0.281\ngini = 0.5\nsamples = 2\nvalue = [1, 1]"] ;
7 -> 8 ;
9 [label="gini = 0.0\nsamples = 1\nvalue = [1, 0]"] ;
8 -> 9 ;
10 [label="gini = 0.0\nsamples = 1\nvalue = [0, 1]"] ;
8 -> 10 ;
11 [label="gini = 0.0\nsamples = 5\nvalue = [5, 0]"] ;
7 -> 11 ;
12 [label="X[2] <= 0.015\ngini = 0.5\nsamples = 10\nvalue = [5, 5]"] ;
6 -> 12 ;
13 [label="X[2] <= -0.095\ngini = 0.408\nsamples = 7\nvalue = [2, 5]"] ;
12 -> 13 ;
14 [label="X[1] <= -0.073\ngini = 0.5\nsamples = 4\nvalue = [2, 2]"] ;
13 -> 14 ;
15 [label="gini = 0.0\nsamples = 1\nvalue = [1, 0]"] ;
14 -> 15 ;
16 [label="X[2] <= -0.109\ngini = 0.444\nsamples = 3\nvalue = [1, 2]"] ;
14 -> 16 ;
17 [label="gini = 0.0\nsamples = 2\nvalue = [0, 2]"] ;
16 -> 17 ;
18 [label="gini = 0.0\nsamples = 1\nvalue = [1, 0]"] ;
16 -> 18 ;
19 [label="gini = 0.0\nsamples = 3\nvalue = [0, 3]"] ;
13 -> 19 ;
20 [label="gini = 0.0\nsamples = 3\nvalue = [3, 0]"] ;
12 -> 20 ;
21 [label="X[1] <= -0.04\ngini = 0.32\nsamples = 5\nvalue = [1, 4]"] ;
5 -> 21 ;
22 [label="gini = 0.0\nsamples = 3\nvalue = [0, 3]"] ;
21 -> 22 ;
23 [label="X[0] <= 0.0\ngini = 0.5\nsamples = 2\nvalue = [1, 1]"] ;
21 -> 23 ;
24 [label="gini = 0.0\nsamples = 1\nvalue = [1, 0]"] ;
23 -> 24 ;
25 [label="gini = 0.0\nsamples = 1\nvalue = [0, 1]"] ;
23 -> 25 ;
26 [label="gini = 0.0\nsamples = 5\nvalue = [5, 0]"] ;
4 -> 26 ;
27 [label="X[2] <= 0.285\ngini = 0.142\nsamples = 13\nvalue = [12, 1]"] ;
3 -> 27 ;
28 [label="gini = 0.0\nsamples = 12\nvalue = [12, 0]"] ;
27 -> 28 ;
29 [label="gini = 0.0\nsamples = 1\nvalue = [0, 1]"] ;
27 -> 29 ;
30 [label="X[2] <= 0.035\ngini = 0.499\nsamples = 93\nvalue = [44, 49]"] ;
2 -> 30 ;
31 [label="X[2] <= -0.12\ngini = 0.459\nsamples = 42\nvalue = [15, 27]"] ;
30 -> 31 ;
32 [label="X[2] <= -0.163\ngini = 0.5\nsamples = 22\nvalue = [11, 11]"] ;
31 -> 32 ;
33 [label="X[1] <= -0.002\ngini = 0.444\nsamples = 15\nvalue = [5, 10]"] ;
32 -> 33 ;
34 [label="gini = 0.0\nsamples = 4\nvalue = [0, 4]"] ;
33 -> 34 ;
35 [label="X[2] <= -0.209\ngini = 0.496\nsamples = 11\nvalue = [5, 6]"] ;
33 -> 35 ;
36 [label="X[1] <= 0.028\ngini = 0.408\nsamples = 7\nvalue = [2, 5]"] ;
35 -> 36 ;
37 [label="X[0] <= 0.0\ngini = 0.444\nsamples = 3\nvalue = [2, 1]"] ;
36 -> 37 ;
38 [label="gini = 0.0\nsamples = 2\nvalue = [2, 0]"] ;
37 -> 38 ;
39 [label="gini = 0.0\nsamples = 1\nvalue = [0, 1]"] ;
37 -> 39 ;
40 [label="gini = 0.0\nsamples = 4\nvalue = [0, 4]"] ;
36 -> 40 ;
41 [label="X[1] <= 0.018\ngini = 0.375\nsamples = 4\nvalue = [3, 1]"] ;
35 -> 41 ;
42 [label="gini = 0.0\nsamples = 1\nvalue = [0, 1]"] ;
41 -> 42 ;
43 [label="gini = 0.0\nsamples = 3\nvalue = [3, 0]"] ;
41 -> 43 ;
44 [label="X[2] <= -0.138\ngini = 0.245\nsamples = 7\nvalue = [6, 1]"] ;
32 -> 44 ;
45 [label="gini = 0.0\nsamples = 5\nvalue = [5, 0]"] ;
44 -> 45 ;
46 [label="X[1] <= 0.002\ngini = 0.5\nsamples = 2\nvalue = [1, 1]"] ;
44 -> 46 ;
47 [label="gini = 0.0\nsamples = 1\nvalue = [1, 0]"] ;
46 -> 47 ;
48 [label="gini = 0.0\nsamples = 1\nvalue = [0, 1]"] ;
46 -> 48 ;
49 [label="X[2] <= -0.07\ngini = 0.32\nsamples = 20\nvalue = [4, 16]"] ;
31 -> 49 ;
50 [label="gini = 0.0\nsamples = 9\nvalue = [0, 9]"] ;
49 -> 50 ;
51 [label="X[2] <= 0.007\ngini = 0.463\nsamples = 11\nvalue = [4, 7]"] ;
49 -> 51 ;
52 [label="X[1] <= 0.028\ngini = 0.5\nsamples = 8\nvalue = [4, 4]"] ;
51 -> 52 ;
53 [label="X[2] <= -0.006\ngini = 0.444\nsamples = 6\nvalue = [4, 2]"] ;
52 -> 53 ;
54 [label="X[2] <= -0.063\ngini = 0.5\nsamples = 4\nvalue = [2, 2]"] ;
53 -> 54 ;
55 [label="gini = 0.0\nsamples = 1\nvalue = [1, 0]"] ;
54 -> 55 ;
56 [label="X[1] <= 0.018\ngini = 0.444\nsamples = 3\nvalue = [1, 2]"] ;
54 -> 56 ;
57 [label="gini = 0.0\nsamples = 2\nvalue = [0, 2]"] ;
56 -> 57 ;
58 [label="gini = 0.0\nsamples = 1\nvalue = [1, 0]"] ;
56 -> 58 ;
59 [label="gini = 0.0\nsamples = 2\nvalue = [2, 0]"] ;
53 -> 59 ;
60 [label="gini = 0.0\nsamples = 2\nvalue = [0, 2]"] ;
52 -> 60 ;
61 [label="gini = 0.0\nsamples = 3\nvalue = [0, 3]"] ;
51 -> 61 ;
62 [label="X[2] <= 0.356\ngini = 0.491\nsamples = 51\nvalue = [29, 22]"] ;
30 -> 62 ;
63 [label="X[1] <= 0.052\ngini = 0.463\nsamples = 44\nvalue = [28, 16]"] ;
62 -> 63 ;
64 [label="X[2] <= 0.126\ngini = 0.401\nsamples = 36\nvalue = [26, 10]"] ;
63 -> 64 ;
65 [label="gini = 0.0\nsamples = 11\nvalue = [11, 0]"] ;
64 -> 65 ;
66 [label="X[1] <= -0.019\ngini = 0.48\nsamples = 25\nvalue = [15, 10]"] ;
64 -> 66 ;
67 [label="gini = 0.0\nsamples = 2\nvalue = [0, 2]"] ;
66 -> 67 ;
68 [label="X[1] <= 0.042\ngini = 0.454\nsamples = 23\nvalue = [15, 8]"] ;
66 -> 68 ;
69 [label="X[1] <= 0.021\ngini = 0.488\nsamples = 19\nvalue = [11, 8]"] ;
68 -> 69 ;
70 [label="X[2] <= 0.182\ngini = 0.408\nsamples = 14\nvalue = [10, 4]"] ;
69 -> 70 ;
71 [label="gini = 0.0\nsamples = 4\nvalue = [4, 0]"] ;
70 -> 71 ;
72 [label="X[3] <= 0.5\ngini = 0.48\nsamples = 10\nvalue = [6, 4]"] ;
70 -> 72 ;
73 [label="X[1] <= -0.006\ngini = 0.375\nsamples = 4\nvalue = [1, 3]"] ;
72 -> 73 ;
74 [label="gini = 0.0\nsamples = 1\nvalue = [1, 0]"] ;
73 -> 74 ;
75 [label="gini = 0.0\nsamples = 3\nvalue = [0, 3]"] ;
73 -> 75 ;
76 [label="X[1] <= 0.014\ngini = 0.278\nsamples = 6\nvalue = [5, 1]"] ;
72 -> 76 ;
77 [label="gini = 0.0\nsamples = 4\nvalue = [4, 0]"] ;
76 -> 77 ;
78 [label="X[1] <= 0.017\ngini = 0.5\nsamples = 2\nvalue = [1, 1]"] ;
76 -> 78 ;
79 [label="gini = 0.0\nsamples = 1\nvalue = [0, 1]"] ;
78 -> 79 ;
80 [label="gini = 0.0\nsamples = 1\nvalue = [1, 0]"] ;
78 -> 80 ;
81 [label="X[1] <= 0.031\ngini = 0.32\nsamples = 5\nvalue = [1, 4]"] ;
69 -> 81 ;
82 [label="gini = 0.0\nsamples = 3\nvalue = [0, 3]"] ;
81 -> 82 ;
83 [label="X[2] <= 0.169\ngini = 0.5\nsamples = 2\nvalue = [1, 1]"] ;
81 -> 83 ;
84 [label="gini = 0.0\nsamples = 1\nvalue = [0, 1]"] ;
83 -> 84 ;
85 [label="gini = 0.0\nsamples = 1\nvalue = [1, 0]"] ;
83 -> 85 ;
86 [label="gini = 0.0\nsamples = 4\nvalue = [4, 0]"] ;
68 -> 86 ;
87 [label="X[2] <= 0.276\ngini = 0.375\nsamples = 8\nvalue = [2, 6]"] ;
63 -> 87 ;
88 [label="X[1] <= 0.085\ngini = 0.245\nsamples = 7\nvalue = [1, 6]"] ;
87 -> 88 ;
89 [label="gini = 0.0\nsamples = 5\nvalue = [0, 5]"] ;
88 -> 89 ;
90 [label="X[1] <= 0.103\ngini = 0.5\nsamples = 2\nvalue = [1, 1]"] ;
88 -> 90 ;
91 [label="gini = 0.0\nsamples = 1\nvalue = [1, 0]"] ;
90 -> 91 ;
92 [label="gini = 0.0\nsamples = 1\nvalue = [0, 1]"] ;
90 -> 92 ;
93 [label="gini = 0.0\nsamples = 1\nvalue = [1, 0]"] ;
87 -> 93 ;
94 [label="X[1] <= 0.06\ngini = 0.245\nsamples = 7\nvalue = [1, 6]"] ;
62 -> 94 ;
95 [label="gini = 0.0\nsamples = 5\nvalue = [0, 5]"] ;
94 -> 95 ;
96 [label="X[1] <= 0.067\ngini = 0.5\nsamples = 2\nvalue = [1, 1]"] ;
94 -> 96 ;
97 [label="gini = 0.0\nsamples = 1\nvalue = [1, 0]"] ;
96 -> 97 ;
98 [label="gini = 0.0\nsamples = 1\nvalue = [0, 1]"] ;
96 -> 98 ;
}